<?xml version="1.0"?>
<opencv_storage>
<cascade>
  <stageType>BOOST</stageType>
  <featureType>HAAR</featureType>
  <height>30</height>
  <width>30</width>
  <stageParams>
    <boostType>GAB</boostType>
    <minHitRate>9.9500000476837158e-01</minHitRate>
    <maxFalseAlarm>5.0000000000000000e-01</maxFalseAlarm>
    <weightTrimRate>9.4999999999999996e-01</weightTrimRate>
    <maxDepth>1</maxDepth>
    <maxWeakCount>100</maxWeakCount></stageParams>
  <featureParams>
    <maxCatCount>0</maxCatCount>
    <featSize>1</featSize>
    <mode>BASIC</mode></featureParams>
  <stageNum>3</stageNum>
  <stages>
    <!-- stage 0 -->
    <_>
      <maxWeakCount>1</maxWeakCount>
      <stageThreshold>9.6624469757080078e-01</stageThreshold>
      <weakClassifiers>
        <_>
          <internalNodes>
            0 -1 3 8.2286447286605835e-03</internalNodes>
          <leafValues>
            -9.9410027265548706e-01 9.6624469757080078e-01</leafValues></_></weakClassifiers></_>
    <!-- stage 1 -->
    <_>
      <maxWeakCount>2</maxWeakCount>
      <stageThreshold>-8.2703024148941040e-02</stageThreshold>
      <weakClassifiers>
        <_>
          <internalNodes>
            0 -1 2 1.3491157442331314e-02</internalNodes>
          <leafValues>
            -7.1022725105285645e-01 8.5959887504577637e-01</leafValues></_>
        <_>
          <internalNodes>
            0 -1 0 7.0440988056361675e-03</internalNodes>
          <leafValues>
            -9.7270590066909790e-01 6.2752425670623779e-01</leafValues></_></weakClassifiers></_>
    <!-- stage 2 -->
    <_>
      <maxWeakCount>3</maxWeakCount>
      <stageThreshold>-7.5959503650665283e-01</stageThreshold>
      <weakClassifiers>
        <_>
          <internalNodes>
            0 -1 2 1.3762911781668663e-02</internalNodes>
          <leafValues>
            -7.1581768989562988e-01 9.1137373447418213e-01</leafValues></_>
        <_>
          <internalNodes>
            0 -1 1 7.4357930570840836e-03</internalNodes>
          <leafValues>
            -8.1582099199295044e-01 6.9527500867843628e-01</leafValues></_>
        <_>
          <internalNodes>
            0 -1 4 -1.5782824484631419e-03</internalNodes>
          <leafValues>
            7.7204364538192749e-01 -5.7016724348068237e-01</leafValues></_></weakClassifiers></_></stages>
  <features>
    <_>
      <rects>
        <_>
          9 10 10 4 -1.</_>
        <_>
          14 10 5 4 2.</_></rects>
      <tilted>0</tilted></_>
    <_>
      <rects>
        <_>
          12 9 3 4 -1.</_>
        <_>
          12 11 3 2 2.</_></rects>
      <tilted>0</tilted></_>
    <_>
      <rects>
        <_>
          13 9 3 6 -1.</_>
        <_>
          13 11 3 2 3.</_></rects>
      <tilted>0</tilted></_>
    <_>
      <rects>
        <_>
          13 9 4 6 -1.</_>
        <_>
          13 11 4 2 3.</_></rects>
      <tilted>0</tilted></_>
    <_>
      <rects>
        <_>
          16 7 3 3 -1.</_>
        <_>
          16 8 3 1 3.</_></rects>
      <tilted>0</tilted></_></features></cascade>
</opencv_storage>
